%% --- NEURAL NETWORK WEIGHTS ---
fc1_weight = [ ...
  -0.20235188 -1.28594971 0.05500609 0.43023127 0.38011616; ...
  0.10815401 0.89376903 0.02811546 -0.25121313 0.37006614; ...
  0.39395377 0.40366232 -0.16573088 -0.94142407 -0.03864934; ...
  -0.27248180 -0.95938390 0.16756900 -1.43935513 0.38308579; ...
  0.21800154 0.82404494 0.04112717 -0.41825956 -0.38193607; ...
  -0.10763737 -0.95650488 -0.01216851 0.69075221 -0.23621403; ...
  -0.19205885 -1.45114315 -0.03299261 -1.27952015 -0.43018886; ...
  0.41456529 -0.87024581 0.06187201 -0.08212022 -0.18587574; ...
  -0.11336606 -1.20780504 -0.01712189 0.61376506 -0.21338843; ...
  0.06858022 0.96975625 0.01825415 -0.06306605 0.29090527; ...
  -0.67101753 1.64764965 -0.02282545 -1.40557539 -0.26272881; ...
  -0.06495573 0.99660712 0.06419870 -0.70646185 0.40306890; ...
  -0.11406107 -0.99855828 -0.07042831 0.31854928 0.20787452; ...
  0.42903894 0.73300862 0.09105072 -0.26557174 -0.09576160; ...
  -0.34325603 -1.21918213 -0.02631512 0.51188034 -0.32995462; ...
  -0.05444729 -0.75563157 0.00638764 0.08700238 -0.13400219 ...
];

fc1_bias = [0.15306120 0.74683487 0.84640419 0.93982399 0.81843269 0.29191020 0.80561203 1.19250774 0.28013042 0.35510033 1.01474881 0.54882604 0.87014747 0.70996940 0.67168230 1.31243265]';

fc2_weight = [ ...
  0.49005690 -0.62500888 -0.17609179 0.34178919 -0.47167140 0.65765548 0.57775170 0.14649004 0.67302996 0.30482844 -1.06958079 -0.58234763 0.59397632 -0.07364404 0.66960526 0.32699272; ...
  0.14764193 -0.59323817 0.56743532 0.77904338 -0.40827012 0.41640928 0.96264654 0.77990490 0.44661629 -0.86152971 -0.48578012 -0.45551449 0.66953856 0.05529736 0.24910343 0.90015721; ...
  -0.59236884 0.70696139 0.85108215 0.65679747 0.59265500 -0.84802991 -0.10689417 0.64008844 -0.89550871 0.44550887 1.20127070 0.50237650 -0.06137760 0.30143499 -0.70271629 0.58225298; ...
  0.78767878 -0.74665111 -0.22542833 0.83491844 -0.60350579 0.82828063 1.10773337 0.79979426 1.02348781 -0.82412553 -1.86083567 -0.76886946 1.01706851 -0.75982618 1.01991773 0.92593062; ...
  -0.26638496 0.00066606 -0.04703243 0.07308368 -0.14740896 0.00920639 0.02858346 -0.31985959 -0.15155922 0.11129484 -0.10555470 -0.09480928 -0.09396517 -0.30913413 -0.28897813 0.05200313; ...
  -0.06364935 -0.42833772 0.32107469 0.73876435 -0.01426260 0.23886140 0.76381248 0.51800406 0.15213501 -0.74299341 -0.44621000 -0.55110466 0.82904696 0.01794045 0.13893771 0.85754240; ...
  -0.06219631 -0.23628296 -0.28181759 -0.30910546 0.08495537 -0.15361221 0.07741996 0.11802001 -0.20087004 -0.14546557 -0.01780434 0.03388146 -0.29234716 0.02662727 -0.22443403 -0.08182380; ...
  -0.21100602 -0.04348024 -0.01083984 -0.19634622 -0.24628641 0.04846069 -0.07144907 -0.04255411 -0.23180622 -0.02017068 0.17745489 -0.19342373 -0.22802335 -0.04082208 -0.14295527 -0.24997497; ...
  -0.64321071 0.47412184 0.53138167 0.01771687 0.40910831 -0.66836029 -0.52555269 0.03940253 -0.64060813 0.75790304 1.54403150 0.73673749 -0.61915809 0.52827996 -0.48519266 -0.05263780; ...
  -0.24776697 0.63209522 0.06456089 -0.83867234 0.20478657 -0.26689330 -1.38569748 -0.55049354 -0.20433113 0.85327029 1.15885079 0.57069355 -1.41909587 0.60712117 -0.73771966 -0.98320621; ...
  -0.16320220 0.02917546 -0.09608155 0.09338160 -0.16445449 -0.14276236 0.10038684 -0.16921580 -0.05786156 -0.26445237 -0.23620890 0.10125754 -0.04947684 -0.21296042 0.06798477 -0.02908555; ...
  0.01062978 -0.35191271 -0.07615415 -0.05759167 -0.03512757 -0.15223403 -0.09273073 -0.02198381 -0.14084600 -0.20422736 0.09497635 -0.08719099 -0.31369579 0.08326437 -0.15379928 -0.17032942; ...
  -0.03155223 -0.21693906 -0.14510572 -0.01634014 -0.13549602 -0.17095873 0.04544115 0.09173554 -0.06059235 -0.00183326 -0.06775764 -0.17550594 -0.11824378 -0.20879072 -0.03768018 -0.22651538; ...
  0.53648496 -0.45755097 -0.34133694 0.25908259 -0.40135410 0.76641768 0.91426051 0.35536984 0.39054009 0.14311104 -1.09625304 -0.02144989 0.46397424 -0.07698540 0.43344593 0.35576209; ...
  0.08020131 0.46287903 0.31514367 -0.47189653 0.45807928 -0.41404700 -0.46675223 -0.06853298 -0.08442495 0.73487228 1.84454012 0.38045722 -0.55305076 0.45587313 -0.40655610 -0.20434020; ...
  -1.40269780 0.71775901 0.75291771 0.66226017 0.61237556 -0.86938143 0.30292043 1.02271259 -1.17818213 0.26777798 1.89280307 0.22908729 -0.22817436 0.61123890 -0.54112196 0.37396684 ...
];

fc2_bias = [0.11271754 0.71439677 0.49727190 0.20807898 -0.28908131 0.67378426 -0.17622517 0.07828365 0.34430459 -0.32392591 -0.24256685 0.07253411 -0.18543980 -0.23093389 0.20729479 0.45879602]';

fc3_weight = [ ...
  0.70307136 0.43855020 -1.01707375 0.81682968 -0.00303332 0.21430692 -0.29252142 0.07933450 -0.41916651 -0.35295153 0.00975842 -0.06877527 -0.00145417 0.74375594 -0.23898794 -1.14006257; ...
  0.07116586 0.75999570 -0.07322806 0.28691834 0.00214293 0.67424232 0.02751332 -0.18664899 -1.36249030 -0.51224190 -0.08538444 0.17444909 -0.04842889 0.10405063 -1.49519563 0.25303999; ...
  -0.17542012 0.31095678 0.41349715 -0.09503914 -0.02658562 0.34801409 -0.22395542 -0.10407830 -0.11181015 -0.30430505 -0.15199818 -0.01925685 0.23620942 -0.18882656 -0.94461548 0.65210176; ...
  -0.53587586 -0.25655603 0.84699923 -1.33197594 0.16680516 0.35034415 -0.16489133 0.03629039 0.18234499 -1.49605072 -0.07687344 0.27669057 -0.11925739 -0.77513254 -0.30264336 0.75671995; ...
  -0.07095773 -1.09015167 0.17662264 -0.33556527 0.04824867 -0.97733772 -0.08309568 -0.02252692 0.49357903 0.70462030 -0.12749310 0.02714495 -0.08368021 0.05605289 0.40313432 0.37247038; ...
  -0.28048608 -0.48740730 -0.10239865 -0.18451646 -0.00149331 -0.27104819 0.14408837 0.17634618 0.27241823 1.00739813 -0.00908945 0.01240205 -0.04098451 -0.55721027 0.40697578 0.17601895 ...
];

fc3_bias = [0.01661413 0.14863010 0.16237272 0.20345306 0.11389960 -0.05859800]';

